digraph Tree {
node [shape=box, style="filled", color="black"] ;
0 [label="compactness_mean <= 0.096\nentropy = 0.948\nsamples = 247\nvalue = [252, 146]\nclass = benign", fillcolor="#e581396b"] ;
1 [label="texture_mean <= 18.775\nentropy = 0.505\nsamples = 141\nvalue = [199, 25]\nclass = benign", fillcolor="#e58139df"] ;
0 -> 1 [labeldistance=2.5, labelangle=45, headlabel="True"] ;
2 [label="entropy = 0.0\nsamples = 88\nvalue = [138, 0]\nclass = benign", fillcolor="#e58139ff"] ;
1 -> 2 ;
3 [label="radius_se <= 0.379\nentropy = 0.87\nsamples = 53\nvalue = [61, 25]\nclass = benign", fillcolor="#e5813996"] ;
1 -> 3 ;
4 [label="texture_se <= 1.035\nentropy = 0.493\nsamples = 39\nvalue = [58, 7]\nclass = benign", fillcolor="#e58139e0"] ;
3 -> 4 ;
5 [label="entropy = 1.0\nsamples = 8\nvalue = [7, 7]\nclass = benign", fillcolor="#e5813900"] ;
4 -> 5 ;
6 [label="entropy = 0.0\nsamples = 31\nvalue = [51, 0]\nclass = benign", fillcolor="#e58139ff"] ;
4 -> 6 ;
7 [label="fractal_dimension_se <= 0.003\nentropy = 0.592\nsamples = 14\nvalue = [3, 18]\nclass = malignant", fillcolor="#399de5d4"] ;
3 -> 7 ;
8 [label="entropy = 0.0\nsamples = 9\nvalue = [0, 15]\nclass = malignant", fillcolor="#399de5ff"] ;
7 -> 8 ;
9 [label="entropy = 1.0\nsamples = 5\nvalue = [3, 3]\nclass = benign", fillcolor="#e5813900"] ;
7 -> 9 ;
10 [label="radius_mean <= 14.735\nentropy = 0.887\nsamples = 106\nvalue = [53, 121]\nclass = malignant", fillcolor="#399de58f"] ;
0 -> 10 [labeldistance=2.5, labelangle=-45, headlabel="False"] ;
11 [label="concave points_mean <= 0.045\nentropy = 0.934\nsamples = 50\nvalue = [52, 28]\nclass = benign", fillcolor="#e5813976"] ;
10 -> 11 ;
12 [label="entropy = 0.0\nsamples = 20\nvalue = [30, 0]\nclass = benign", fillcolor="#e58139ff"] ;
11 -> 12 ;
13 [label="concave points_se <= 0.02\nentropy = 0.99\nsamples = 30\nvalue = [22, 28]\nclass = malignant", fillcolor="#399de537"] ;
11 -> 13 ;
14 [label="entropy = 0.764\nsamples = 25\nvalue = [8, 28]\nclass = malignant", fillcolor="#399de5b6"] ;
13 -> 14 ;
15 [label="entropy = 0.0\nsamples = 5\nvalue = [14, 0]\nclass = benign", fillcolor="#e58139ff"] ;
13 -> 15 ;
16 [label="smoothness_mean <= 0.085\nentropy = 0.085\nsamples = 56\nvalue = [1, 93]\nclass = malignant", fillcolor="#399de5fc"] ;
10 -> 16 ;
17 [label="radius_mean <= 17.26\nentropy = 0.918\nsamples = 3\nvalue = [1, 2]\nclass = malignant", fillcolor="#399de57f"] ;
16 -> 17 ;
18 [label="entropy = 0.0\nsamples = 1\nvalue = [1, 0]\nclass = benign", fillcolor="#e58139ff"] ;
17 -> 18 ;
19 [label="entropy = 0.0\nsamples = 2\nvalue = [0, 2]\nclass = malignant", fillcolor="#399de5ff"] ;
17 -> 19 ;
20 [label="entropy = 0.0\nsamples = 53\nvalue = [0, 91]\nclass = malignant", fillcolor="#399de5ff"] ;
16 -> 20 ;
}